digraph Tree {
node [shape=box, style="filled, rounded", color="black", fontname=helvetica] ;
edge [fontname=helvetica] ;
0 [label="grade_A <= 0.5\ngini = 0.5\nsamples = 241893\nvalue = [191948, 190855]\nclass = bad loan", fillcolor="#fffefe"] ;
1 [label="borrower_rate <= 0.14\ngini = 0.5\nsamples = 216851\nvalue = [183777, 159587]\nclass = bad loan", fillcolor="#fceee5"] ;
0 -> 1 [labeldistance=2.5, labelangle=45, headlabel="True"] ;
2 [label="amount_borrowed <= 35025.0\ngini = 0.49\nsamples = 98846\nvalue = [66110, 90562]\nclass = good loan", fillcolor="#cae5f8"] ;
1 -> 2 ;
3 [label="gini = 0.49\nsamples = 97941\nvalue = [65906, 89352]\nclass = good loan", fillcolor="#cbe5f8"] ;
2 -> 3 ;
4 [label="gini = 0.25\nsamples = 905\nvalue = [204, 1210]\nclass = good loan", fillcolor="#5aaee9"] ;
2 -> 4 ;
5 [label="borrower_rate <= 0.16\ngini = 0.47\nsamples = 118005\nvalue = [117667, 69025]\nclass = bad loan", fillcolor="#f4cbad"] ;
1 -> 5 ;
6 [label="gini = 0.49\nsamples = 29935\nvalue = [26223, 21276]\nclass = bad loan", fillcolor="#fae7da"] ;
5 -> 6 ;
7 [label="gini = 0.45\nsamples = 88070\nvalue = [91444, 47749]\nclass = bad loan", fillcolor="#f3c3a0"] ;
5 -> 7 ;
8 [label="borrower_rate <= 0.07\ngini = 0.33\nsamples = 25042\nvalue = [8171, 31268]\nclass = good loan", fillcolor="#6db7ec"] ;
0 -> 8 [labeldistance=2.5, labelangle=-45, headlabel="False"] ;
9 [label="installment <= 892.94\ngini = 0.26\nsamples = 14648\nvalue = [3534, 19669]\nclass = good loan", fillcolor="#5dafea"] ;
8 -> 9 ;
10 [label="gini = 0.27\nsamples = 13805\nvalue = [3466, 18408]\nclass = good loan", fillcolor="#5eafea"] ;
9 -> 10 ;
11 [label="gini = 0.1\nsamples = 843\nvalue = [68, 1261]\nclass = good loan", fillcolor="#44a2e6"] ;
9 -> 11 ;
12 [label="borrower_rate <= 0.08\ngini = 0.41\nsamples = 10394\nvalue = [4637, 11599]\nclass = good loan", fillcolor="#88c4ef"] ;
8 -> 12 ;
13 [label="gini = 0.38\nsamples = 8176\nvalue = [3232, 9534]\nclass = good loan", fillcolor="#7cbeee"] ;
12 -> 13 ;
14 [label="gini = 0.48\nsamples = 2218\nvalue = [1405, 2065]\nclass = good loan", fillcolor="#c0e0f7"] ;
12 -> 14 ;
}